,Agric,Food ,Soda ,Beer ,Smoke,Toys ,Fun  ,Books,Hshld,Clths,Hlth ,MedEq,Drugs,Chems,Rubbr,Txtls,BldMt,Cnstr,Steel,FabPr,Mach ,ElcEq,Autos,Aero ,Ships,Guns ,Gold ,Mines,Coal ,Oil  ,Util ,Telcm,PerSv,BusSv,Hardw,Softw,Chips,LabEq,Paper,Boxes,Trans,Whlsl,Rtail,Meals,Banks,Insur,RlEst,Fin  ,Other
1927,26.23,41.88,-99.99,64.22,47.72,-22.67,15.66,8.97,43.03,43.13,-99.99,49.93,45.55,57.08,-99.99,31.06,20.55,-21.25,35.99,-99.99,46.24,56.9,64.84,156.17,33.76,-99.99,-99.99,61.64,13.58,0.62,35.38,25.31,-99.99,68.74,73.15,-99.99,33.32,30.06,-99.99,53.67,22.66,-45.47,43.54,32.14,24,119.97,19.9,41.6,24.64
1928,2.46,27.95,-99.99,38.8,-2.3,44.33,46.38,35.48,59.07,7.74,-99.99,39.37,49.83,56.52,-99.99,-9.7,41.17,37.24,53.45,-99.99,47.06,81.96,60.63,239.4,5.55,-99.99,-99.99,26.45,-0.39,37.33,61.61,20.28,-30.27,39.56,72.33,-99.99,46.41,16.53,-99.99,32.66,15.66,24.16,55.26,28.12,62.95,14.67,42.25,37.18,-8.47
1929,-16.27,-14.62,-99.99,-16.07,-7.17,-57.07,-35.91,-4.72,-34.99,-28.47,-99.99,-20.98,-26.19,1.08,-99.99,-50.66,-23.87,19.25,-12.24,-99.99,-10.79,1.13,-50.8,-60.43,-3.6,-99.99,-99.99,-22.68,-5.47,-11.57,13.55,20.7,-59.04,-0.99,1.91,-99.99,-27.41,4.38,-99.99,3.55,1.35,-49.56,-41.34,-4.9,-31.46,-36.61,2,-28.04,-62.25
1930,-47.79,-11.24,-99.99,-53.28,-3.24,-20.45,-13.95,-15.73,-42.26,-20.63,-99.99,-16.13,-14.35,-26.49,-99.99,-38.28,-44.83,-33.39,-38.71,-99.99,-30.87,-40.42,-22.03,-52.57,-38.67,-99.99,-99.99,-37.25,-41.77,-35.08,-21.18,-9.81,-38.24,-29.28,-33.74,-99.99,-56.66,-13.94,-83.9,-14.61,-29.25,-47.91,-35.1,-29.47,-19.14,-28.54,-61.34,-52.16,-32.66
1931,-48.67,-33.53,-99.99,-43.07,-20.18,-67.55,-74.4,-65.88,-36.51,-24.27,-99.99,-28.78,-11.41,-40.92,-34.66,-28.56,-53.69,-64.21,-63.72,-99.99,-60.13,-46.73,-33.97,-29.86,-58.95,-99.99,-99.99,-45.33,-67.18,-45.91,-39.83,-30.77,85.54,-64.28,-43.75,-99.99,-62.83,-40.02,-61.7,-38.1,-60.86,-60.86,-25.2,-46.16,-36.98,-47.64,-66.34,-53.22,-0.32
1932,11.94,-5.33,-99.99,13.03,-6.66,-42.77,-33.77,-46.78,-22.78,-21.67,-99.99,-27.49,-21.78,-10.63,-31,-12.75,5.84,-28.32,-20.59,-99.99,-18.97,-27.08,-30.9,31.15,-0.26,-99.99,-99.99,6.79,1.51,17.93,-1.74,-3.67,-47.77,-23.7,-16.94,-99.99,-28.08,-28.2,-55.56,0.29,-17.44,-44.95,-14.11,-25.31,12.81,-21.82,-61.96,30.34,-12.22
1933,156.93,41.32,-99.99,189.18,52.58,87.09,55.6,53.33,38.4,93.81,-99.99,-12.1,19.17,130.4,169.02,97.95,110.29,1.41,125.35,-99.99,99.23,42.13,165.23,32.38,186.12,-99.99,-99.99,100.41,24.12,77.73,-27.8,16.36,-25.21,72.79,89.26,-99.99,148.45,54.33,125,97.9,73.11,109.51,58.89,-3.41,131.17,51.35,76.43,6.37,159.39
1934,33.4,9.24,-99.99,-11.62,30.76,-15.36,17.86,36.81,18.21,12.55,-99.99,30.03,21.62,4.63,34.33,5.55,8.54,-33.8,-6.54,-99.99,20.47,8.15,-1.43,3.34,-5.49,-99.99,-99.99,0.49,0.21,-5.89,-22.18,0.87,66.61,-24.39,15.43,-99.99,46.96,44.53,72.22,23.08,-7.85,41.71,25.11,14.62,98.87,48.49,-25.36,-10.5,34.34
1935,-7.43,23,-99.99,31.13,18.61,60.95,78.39,16.5,21.34,16.13,-99.99,2.91,20.84,44.68,47,40.76,62.23,139.91,55.73,-99.99,72.6,84.17,75.69,67.81,11.6,-99.99,-99.99,36.95,-10.2,37.34,83.8,61.26,31.43,140.97,51.97,-99.99,118.74,44.74,74.19,30.88,23.41,14.12,18.67,25.14,17.42,33.9,96.68,92.7,30.03
1936,31.31,19.84,-99.99,5.38,4.35,79.72,58.47,3.99,24.83,10.17,-99.99,-6.8,18.12,36.55,31.05,42.6,35.5,87.61,65.45,-99.99,56.15,39.83,24.79,36.99,72.06,-99.99,-99.99,39.96,19.85,40.55,20.27,25.48,151.71,-6.26,23.87,-99.99,68.62,16.57,96.3,-0.42,37.48,49.09,33.37,66.2,59.83,6.33,53.89,29.81,-3.85
1937,-27.26,-25.84,-99.99,-28.13,-19.34,-60.2,-44.79,-66.94,-28.24,-37.92,-99.99,-34.17,-24.68,-30.69,-44.55,-54.5,-43.54,-42.56,-38.2,-99.99,-39.98,-27.97,-50.78,-31.19,-51.08,-99.99,-99.99,-18.99,-48.94,-29.11,-36.78,-18.74,-59.1,-32.63,-38.61,-99.99,-41.81,-3.81,-34.61,-38.66,-45.64,-46,-40.8,-42.16,-41.01,-29.96,-61.36,-49.27,-38.7
1938,21.26,21.54,-99.99,24.37,25.74,62.68,28.72,13.86,32.96,16.51,-99.99,32.21,38.38,35.46,6.73,38.52,48.16,59.63,35.52,-99.99,19.86,19.51,69.3,81.64,45.44,-99.99,-99.99,18.7,1.3,11.61,21.44,10.82,26.56,45.28,39.33,-99.99,40.81,19.53,76.71,36.7,21.08,48.63,45.19,26.88,63.5,32.99,6.68,-1.7,59.15
1939,36.78,9.04,-99.99,-17.21,2.75,78.23,-35.74,-13.77,16.87,19.06,-99.99,1.02,16.84,9.79,7.92,7.65,-19.03,-32.76,-7.24,-99.99,-2.13,-5.39,9.77,14.71,-10.39,-99.99,-99.99,-4.21,1.26,-9.51,14.5,20.27,-37.02,-41.02,-17.27,-99.99,-36.15,-5.06,-23.65,9.3,-0.24,-17.97,10.61,-22.81,-1.38,20.54,-43.93,-5.06,-22.59
1940,-12.69,-10.18,-99.99,0.75,-9.66,21.23,-7.01,-23.33,-9.31,-8.75,-99.99,-8.68,-19.44,-9.48,2.74,-8.65,-14.3,-29.66,2.7,-99.99,0,-11.1,-5.59,-8.24,-8.18,-99.99,-99.99,-4.77,9.51,-10.05,-17.12,3.03,1.12,-9.02,-10.39,-99.99,-6.74,-12.94,-18.22,-12.39,-2.49,-21.67,-5.89,0.19,-18.24,0.05,9.5,-6.15,-8.29
1941,10.26,-3.98,-99.99,14.3,-21.27,-34.62,30.44,-30.39,-8.08,3.83,-99.99,14.71,-6.75,-3.57,-12.3,-9.52,-14.66,-33.69,-9.64,-99.99,-10.24,-17.21,-27.22,2.65,-12.7,-99.99,-99.99,-4.56,2.77,13.32,-34.39,-17.14,-29.73,-24.17,-1.45,-99.99,-11.78,4.43,-15.1,-23.96,-7.75,0.62,-15.18,0.02,-31.42,13.89,-22.7,-8.05,-6.85
1942,-2.09,13.37,-99.99,31.71,2.89,10.48,40.26,91.79,8.66,16.8,-99.99,60.74,15.77,5.25,54.37,35.77,25.97,38.94,-2.51,-99.99,19.43,25.04,52.18,-10.61,2.25,-99.99,-99.99,15.48,4.7,22.33,19.63,6.46,57.46,32.08,31.7,-99.99,73.39,12.97,34.54,16.26,26,39.14,16.66,24.02,61.46,9.58,-4.89,44.39,25.3
1943,17.25,33.45,-99.99,78.32,23.08,40.22,54.04,142,31.02,30.59,-99.99,63.87,18.61,7.72,-99.99,45.89,29.39,57.41,16.68,-99.99,28.54,31.48,30.22,6.48,47.73,-99.99,-99.99,13.42,44.87,28.95,52.88,32.03,152.95,63.89,32.19,-99.99,40.29,11.73,21.48,29.57,33.49,71.5,40.51,59.37,40.42,16.5,125.13,49.85,27.44
1944,23.17,21.62,-99.99,18.96,18.94,56.62,32.31,60.33,17.23,19.51,-99.99,17.48,10.36,10.71,-99.99,43.66,25.45,57.07,27.46,-99.99,23.02,19.35,31.93,40.9,41.25,-99.99,-99.99,17.45,46.34,11.81,17.11,11.14,60.33,39.67,21,-99.99,31.61,13.62,21.14,24.76,43.23,36.08,26.15,44.98,14.86,5.61,51.93,29.72,27.62
1945,30.18,37.98,-99.99,159.38,32.46,40.83,75.37,106.18,32.47,37.39,-99.99,57.07,45.29,31.9,25.83,71.75,44.13,93.86,49.21,-99.99,39.03,30.47,32.25,46.91,37.8,-99.99,-99.99,44.58,43.03,30.32,51.33,23.63,55.4,73.3,38.25,-99.99,33.25,32.36,42.44,41.46,40.64,51.04,52.02,81.02,32.77,27.31,99.82,77.08,26.56
1946,41.27,-6.92,-99.99,-19.15,-1.72,-14.74,0.93,-28.72,-3.46,-6.61,-99.99,7.06,30.45,2.39,-10.78,-4.83,2.91,-19.88,1.52,-99.99,-16.71,-27.02,-26.38,-29.3,-15.85,-99.99,-99.99,-13.84,-1.19,4.57,4.58,-6.88,-14.99,-2.71,3.92,-99.99,5.94,1.65,20.26,4.51,-22.35,1.65,-0.71,-5.87,-2.9,-6.26,-27.54,-19.02,-4.7
1947,12.59,1.79,-99.99,-20.63,-4.77,-2.31,-29.31,-15.65,5.82,11.1,-99.99,-22.46,-19.01,4.62,-3.48,16.36,-3.88,-10.1,7.57,-99.99,13.56,7.34,14.68,-9.96,3.29,-99.99,-99.99,-3.87,59.21,22.54,-10.79,-7.43,1.51,-11.32,5.99,-99.99,-12.35,3.31,-4.64,5.5,-2.25,-3.13,-1.96,-5.7,-2.33,9.02,-4.45,0.14,2.53
1948,0.51,-10.13,-99.99,-2.92,-1.3,-18.97,-0.95,-19.17,-3.71,-8.16,-99.99,17.14,-7.2,5.28,-16.62,-7.58,-7.54,20.16,5.17,-99.99,-7.88,8.54,2.03,19.9,-16.83,-99.99,-99.99,6.8,11.89,5.1,4.58,4.86,-14.77,-3.13,5.6,-99.99,-9.39,6.06,-0.52,-0.68,0.71,-1.62,5.01,-15.27,13.18,21.98,-10.92,2.84,4
1949,18.42,28.75,-99.99,41.83,23.78,25.42,23.7,16.99,36.77,24.65,-99.99,63.46,37.27,28.21,17.43,18.79,25.38,56.41,7.81,-99.99,16.53,14,33.78,20.13,2.88,-99.99,-99.99,18.41,-4.12,8.77,33.18,6.95,39.64,31.29,40.62,-99.99,35,15.76,6.86,32.59,7.57,16.02,23.48,21.66,38.52,25.96,32.9,38.04,16.51
1950,15.86,4.29,-99.99,34.09,-6.71,2.8,-6.04,18.78,26.5,23.37,-99.99,40,14.45,41.82,30.65,42.36,16.3,8.12,65.07,-99.99,34.47,26.06,42.91,62.17,44.05,-99.99,-99.99,42.29,48.44,49.85,5.5,9.93,17.13,6.01,8.64,-99.99,41.15,13.14,39.24,46.89,45.61,25.96,18.16,19.27,-8.04,17.98,20.17,39.53,10.49
1951,14.31,3.88,-99.99,12.25,0.28,19.22,17.89,-7.56,5.14,-2.71,-99.99,-2.14,36.4,23.51,33.55,-3.96,25.18,25.1,15.67,-99.99,17.44,27.17,23.67,5.63,3.92,-99.99,-99.99,18.1,15.22,40.27,22.7,11.23,4.66,10.6,19.36,-99.99,32.56,14.21,41.27,19.71,6.18,27.3,6.94,5.3,38.83,4.18,15.47,32.16,14.53
1952,-4.09,10.45,-99.99,-13.63,20.82,22.22,-4.61,18.19,7.35,6.52,-99.99,-9.4,-12.55,6.54,-1.6,-5.2,9.28,22.6,5.63,-99.99,9.15,26.54,36.91,19.67,10.61,-99.99,-99.99,4.43,10.94,11.47,21.6,10.16,-9.58,3.35,12.36,-99.99,21.04,0.84,-7.99,15.38,29.16,-3.15,8.35,19.98,30.65,18.65,47.75,14.6,5.55
1953,-15.28,8.67,-99.99,-0.55,-1.77,8.53,15.66,10.25,1.8,-1.68,-99.99,8.74,-0.3,4.6,24.9,-17.98,4.82,-4.71,-4.97,-99.99,-6.32,10.98,-9.81,15.13,-0.4,-99.99,-99.99,-15.15,-23.51,-3.27,8.42,6.16,35.75,4.18,4.7,-99.99,10.74,14.99,-19.24,16.52,-10.38,-11.5,4.84,-3.6,8.42,-1.94,9.45,-5.63,9.98
1954,35.64,26.6,-99.99,34.87,12.75,25.68,67.33,56.15,52.65,29.35,-99.99,28.94,36.01,46.23,31.31,48.54,63.86,36.87,87.11,-99.99,62.29,66.02,67.29,140.01,62.74,-99.99,-99.99,60.94,59.75,55.71,26.5,21.2,46.34,29.53,84.49,-99.99,61.77,57.7,99.28,63.65,60.77,38.92,30.82,97.06,57.68,39.66,50.87,60.53,41.15
1955,-0.83,10.96,-99.99,-1.24,24.84,8.24,-3.22,13.94,7.03,13.53,-99.99,7.65,22.84,34.77,52.94,8.73,24.56,13.63,47.81,-99.99,22.77,18.03,43.59,26.39,29.6,-99.99,-99.99,20.29,44.78,28.55,12.29,11.54,8.14,12.25,21.82,-99.99,19.5,20.83,42.29,27.11,17.78,2.51,23.73,15.46,4.41,7.39,-4.06,15.26,0.13
1956,-7.13,-2.41,-99.99,7.87,1.36,38.06,-0.58,24.94,3.55,-7.96,-99.99,-2.18,17.5,-3.46,13.19,-15.16,8.04,11.07,21.46,-99.99,28.29,3.65,0.86,18.31,16.51,-99.99,-99.99,-1.57,37.92,21.27,6.94,3.78,14.33,5.06,51.82,-99.99,29.09,17.05,-7.86,2.84,0.34,17.33,-10.65,1.75,-0.8,-8.95,22.43,2.84,1.02
1957,-7.25,5.54,-99.99,-1.4,19.66,-1.67,-13,13.34,1.65,-12.78,-99.99,15.27,29.52,-10.09,-13.47,-23.52,-10.47,-7.17,-32.44,-99.99,-26.34,0.53,-18.27,-27.9,-12.63,-99.99,-99.99,-25.12,-34.62,-13.71,6.07,2.06,17.99,1.45,13.53,-99.99,1.16,15.38,-28.01,-3.64,-26.8,-12.5,-2.31,-15.65,14.37,5.51,-16.53,-16.79,-14.29
1958,60.19,44.47,-99.99,63.28,46.67,77.72,66.37,51.98,52.86,35.27,-99.99,61.34,75.47,31.52,34.24,75.69,45.14,51.58,70.62,-99.99,57.37,40.36,53.89,29.61,35.33,-99.99,-99.99,39.64,48.58,28.07,40.76,44.21,59.16,42.82,78.69,-99.99,49.47,53.71,56.38,42.15,68.31,40.85,58.08,92.13,38.94,39.94,68.23,49.19,66.75
1959,33.48,16.83,-99.99,12.86,21.79,98.01,18.95,20.55,24.12,22.82,-99.99,18.06,30.22,24.16,9.59,26.46,16.55,0.64,12.32,-99.99,15.37,33.25,21.03,4.48,-5.15,-99.99,-99.99,-6.76,15.53,-7.74,3.72,16.28,20.41,18.42,21.27,-99.99,22.83,55.24,15.63,16.81,3.47,19.61,18.72,27.98,-6.53,1.78,14.19,3.81,13.1
1960,-6.53,34.66,-99.99,-6.53,36.31,93.27,13.42,48.32,30.43,-7.28,-99.99,23.21,4.61,-18.71,-7.85,-13.09,2.02,-13.68,-21.2,-99.99,-6.9,-16.86,-23.88,14.18,-2.91,-99.99,-99.99,18.01,-9.27,-1.73,20.89,32.09,45.68,-4.24,31.69,-99.99,-1.72,7.17,-26.27,-1.4,-8.61,0.87,5.69,0.83,24.58,6.42,-11.23,-3.7,19.46
1961,-19.19,35.69,-99.99,32.73,64.07,2.13,41.94,5.79,38.82,49.89,-99.99,25.43,27.06,18.42,38.78,39.55,15.51,41.8,13.29,-99.99,20.17,9.53,45.24,12.75,6.13,-99.99,-99.99,10.66,49.61,26.04,28.32,30.38,5.97,26.21,46.74,-99.99,-2.72,4.13,20.09,12.52,19.72,27.24,47.99,11.55,56.83,28.27,58.56,36.63,40.86
1962,-35.55,-14.59,-99.99,-9.35,-39.67,-55.51,-31.52,-30.76,-15.8,-18.92,-99.99,-22.01,-20.86,-1.61,-17.12,-5.67,-20.92,-22.02,-24.76,-99.99,-11.24,-9.61,-0.23,-4.55,-9.51,-99.99,-99.99,-14.41,-10.23,10.07,-0.14,-12.45,-21.48,-6.64,-32.18,-99.99,-31.55,-8.52,5.83,-17.78,4.25,-16.09,-18.55,-30.82,-14.88,-7.42,-25.31,-7.1,-2.55
1963,25.44,17.72,-99.99,3.66,8.32,1.99,12.79,19.32,28.45,5,-99.99,34.37,19.71,21.27,16.44,43.48,15.48,1.43,26.29,-99.99,21.48,3.43,36.01,-5.47,13.51,-99.99,-99.99,34.7,45.99,22.36,11.36,21.58,0.75,2.55,31.71,-99.99,33.58,5.3,48.83,17.77,38.33,4.35,20.39,-5.91,5.58,-4.13,4.75,19.32,54.85
1964,18.26,9.19,20.04,17.32,7.39,-8.88,-0.14,27.07,11.68,18.57,-99.99,14.02,16.75,18.91,29.09,31.19,11.95,23.88,9.36,39.96,26.75,18.67,26.93,38.09,22.96,-13.99,46.06,41.64,5.57,27.18,16.2,2.43,2.87,21.72,-1.59,-99.99,12.56,15.99,5.59,-0.38,20.16,12.16,32.81,24.17,-7.39,4.44,-10.62,7.72,6.32
1965,58.95,4.17,22.91,26.29,11.88,111.41,37.78,56.56,38.62,34.06,-99.99,43.78,31.01,8.96,26.54,46.58,16.08,63.73,23.71,28.36,31.74,49.62,10.84,73.79,25.29,36,-9.99,47.05,12.8,3.93,2.87,-5.23,48.28,33.54,27.55,-99.99,44.35,57.34,5.4,27.06,33.54,40.56,5.42,31.12,3.77,7.6,20.4,13.28,47.64
1966,0.88,-11.07,0.13,-6.35,-13.59,-25.42,1.23,11.97,-0.12,-16.23,-99.99,8.31,-6.36,-27.07,-2.63,-29.87,-12.52,-13.46,-11.37,-13.47,-16.14,-9.29,-26.82,2.8,-21.19,-1.05,11.82,1.79,14.74,-4,-5.41,-4.59,-18.08,-13.32,12.68,-43.14,0.47,6.56,-12.65,4.56,-1.93,1.44,-24.72,-11.04,-6.56,6.1,-11.64,-8.54,-26.27
1967,15.27,24.09,38.16,25.83,29.13,34.11,100.83,23.34,33.52,72.12,-99.99,63.22,22.41,21.07,102.44,49.69,45.47,100.51,23.39,49.32,42.98,68.27,38.26,44.15,28.08,5.08,54.64,53.28,52.07,22.48,1.34,-2.05,125.83,83.65,79.05,193.1,32.23,53.84,21.69,23.72,6.8,101.68,41.35,149.81,17.4,-7.21,98.2,50.64,70.16
1968,5.92,23.25,16.98,26.55,28,21.89,44.03,8.68,-0.94,39.16,-99.99,10.97,10.1,10.63,18.87,34.47,35.91,28.77,14.93,-4.61,13.47,0.61,7.25,-11.36,49.12,35.65,39.22,6.85,35.33,23.32,11.87,10.6,38.91,16.43,-1.05,-54.12,-3.4,12.67,48.48,22.03,16.85,29.11,25.94,56.03,53.35,85.4,105.21,38.25,45.24
1969,-3.71,-7.11,8.4,2.63,-0.66,-20.63,-21.72,-19.31,6.4,-31.89,-99.99,43.1,18.09,-24.14,-30.56,-29.43,-13.16,-28.54,-19.6,-28.41,-20.35,-12.15,-12.57,-44.47,-25.88,-34.26,-32.62,-22.96,-5.56,-25.03,-14.29,-6.1,-34.31,-2.3,13.19,-45.51,-16.28,-2.85,-1.18,-1.44,-34.27,-31.63,-0.24,-11.2,-8.08,-23.38,-17.1,-17.49,-40.15
1970,-24.26,6.15,6.58,-3.63,32.54,-11.88,-12.67,-19.49,-4.8,2.17,-64.35,-19.33,-2.12,10.99,-15.61,14.18,-0.07,-26.78,-9.14,-10.47,2.33,5.14,14.5,-27.22,10.63,-3.58,3.85,-4.53,54.64,15.3,16.55,5.62,-55.7,-24.92,-19.02,-73.05,-23.22,-34.35,5.14,-9.49,-4.41,-23.15,9.12,-23.29,7.33,-1.54,-15.41,-6.56,-53.39
1971,-1.63,9.79,44.53,23.58,15.22,37.75,55.83,24.69,30.35,24.38,27.9,44.14,18.7,20.52,16.68,3.35,6.59,17.02,-5.21,32.14,18.13,33.31,12.74,28.45,26.13,25.34,-7.74,-1.51,0.9,7.51,2.09,3.09,19.69,20.06,10.32,-5.78,19.58,13.85,-5.24,16.66,48.99,33.65,35.23,47.5,15.52,27.2,21.99,24.73,1.5
1972,23.43,14.85,21.09,25.45,14.92,10.8,43.37,2.77,31.56,-7.83,-15.11,25.82,30.7,19.75,9.14,3.9,1.08,4.42,9.6,-6.1,23.42,15.89,7.05,21.16,-9.78,13.38,19.19,22.44,-32.07,22.36,10.13,20.55,-30.87,-1.47,20.4,-53.37,9.44,31.68,18.45,19.98,-2.88,7.9,7.7,33,19.37,5.41,-18.88,18.26,-5.05
1973,0.25,-22.09,-17.68,-16.76,-14.35,-52.44,-59.13,-40.62,-25.2,-56.64,-62.31,-19.6,-13.04,-5.1,-34.41,-41.44,-24.74,-19.5,11.53,1.77,-10.3,-26.32,-40.92,-46.06,48.53,-24.8,68.34,33.63,9.21,10.08,-18.66,-6.48,-54.78,-32.3,-21.6,-66.86,-30.43,-17.61,16.93,-13.39,-28.14,-34.45,-35.97,-48.89,-13.28,-16.42,-57.5,-26.66,-46.54
1974,-18.65,-11.46,-52.27,-49.55,1.24,-38.83,-32.68,-32.83,-40.47,-30.52,-43.02,-30.27,-19.96,-16.31,-25.38,-24.75,-29.47,-38.02,-9.11,-42.33,-28.71,-41.46,-24.43,-11.27,-44.82,-3.12,-19.97,-23.41,32.54,-26.03,-19.47,-7.56,-21.56,-37.3,-33.09,-43.06,-37.67,-36.01,-27.31,-28.73,-25.67,-15.55,-33.37,-46.98,-36.14,-30.98,-52.61,-32.47,-33.92
1975,17.95,51.72,68.46,36.29,22.96,53.28,118.75,67.11,41.37,115.25,98.24,20.08,6.36,49.76,67.07,72.23,58.45,41.67,36.75,14.86,39.75,44.93,73.54,75.75,13.73,41.04,-4.52,38.43,67.34,23.66,45.05,25.36,38.37,41.4,39.7,54.02,71.59,59.5,54.17,30.67,42.28,50.09,64.56,118.72,18.25,22.74,29.84,24.29,29.62
1976,17.22,17.35,6.04,6.63,21.6,40.86,17.26,38.07,7.94,36.56,39.49,-0.19,0.28,11.84,39.44,21.03,44.68,23.23,31.25,41.81,35.84,26.03,44.55,62.15,33.32,63.86,9.9,34.93,43.1,39.23,31.53,35.8,35.22,31.06,28.06,-4.42,40.53,15.46,31.9,16.59,29.64,28.88,16.2,2.28,30.7,39.5,58.2,37.87,28.95
1977,1.81,-3.06,2.98,-18.48,-0.97,-23.26,12.97,14.16,-15.68,7.08,50.58,-0.17,-6.96,-15.5,5.62,-4.39,-4.6,6.54,-19.87,22.95,0.6,6.2,-9.48,8.31,0.17,9.8,13.93,-24.71,-16.06,-1.96,7.19,3.47,22.17,14.41,0.34,10.37,0.21,1.54,-23.13,-7.03,-1.42,1.64,-10.55,8.51,-8.43,9.24,16.68,3.36,8.44
1978,13.37,2.14,14.3,9.53,14.06,5.34,26.48,15.72,8.03,3.78,56.55,3.45,18.84,1.41,13.15,9.16,7.9,7.05,1.23,9.14,12.04,9.16,0.18,50.51,17.61,40.3,0.31,12.78,-13.61,8.54,-3.44,8.25,16.05,13.72,17.07,56.71,10.13,21.77,4.06,21.64,7.68,15.11,-3.67,14.94,7.87,13.9,25.67,9.83,14.56
1979,43.74,11.12,-8.53,30.24,20.21,29.23,29.89,21.36,0.89,33.31,58.17,17.79,18.18,33.34,25.09,26.28,30.45,75.68,30.4,47.41,25.17,22.6,5.27,22.8,61.35,40.29,128.11,72.96,55.56,59.38,13.52,-0.83,23.11,36.63,2.1,60.18,28.53,38.23,21.7,-3.31,20.53,40.12,11.65,16.69,17.28,33.62,65.92,27.36,34.59
1980,36.45,11.86,8.56,19.7,33.26,41.02,33.44,24.81,21.83,26.77,91.19,38.69,23.21,26.91,8.33,17.09,23.42,84.81,25.79,42.67,37.46,32.58,6.72,40.31,40.76,43.29,67.76,44.75,27.22,68.66,19.1,8.48,26.12,50.13,22.25,132.76,46.31,52.88,19.33,17.55,37.8,35.64,11.7,19.29,17.18,7.75,34.87,38.63,57.92
1981,13.17,14.42,23.97,18.09,12.17,-1.88,14.51,20.45,2.62,9.19,0.76,5.25,4.23,-6.81,3.8,19.7,-4.98,-35.05,-1.28,10.15,-11.9,3.13,-5.18,-25.21,-31.33,-26.9,-34.68,-6.49,-10.82,-20.81,6.1,33.73,19.15,5.68,-16.47,-8.44,-8.29,-16.29,-1.87,4.73,6.05,-2.97,15.99,11.81,7.33,18.68,2.86,6.86,-8.07
1982,3.74,38.8,38.26,51.74,29.19,31.84,8.83,50.19,43.19,57.89,65.82,38.88,24.48,3.52,19,46.05,29.86,8.35,-10.91,-28.6,-11.42,37.95,61.05,39.36,16.84,38.21,47.68,-34.05,-30.01,-13.88,22.64,19.7,34.01,35.87,51.41,28.47,29.48,47.48,20.05,33.04,21.08,46.29,70.5,41.28,25.47,25.09,33.37,20.1,24.26
1983,19.64,30,13.59,19.04,30.59,40.46,10.13,22.48,16.22,20.69,-2.05,-8.92,8.75,35.56,38.89,44.11,18.37,10.1,39.7,16.72,26.17,27.65,31.09,34.76,65.97,40.27,-5.09,15.79,15.25,27.82,18.36,11.87,22.09,15.41,23.12,15.76,23.44,23.74,31.26,27.09,35.62,24.92,27.75,25.52,30.02,15.41,26.25,26.04,15.76
1984,11.71,17,21.71,1.15,21.4,-17.03,-4.88,11.42,1.17,-9.35,6.46,-17.6,7.03,-5.34,-2.31,-14.04,-1.97,-11.08,-20.04,-11.31,-12.49,-7.25,4.7,13.65,23.68,13.63,-35.35,-19.16,-14.76,12.58,19.7,24.81,-2.86,-3.18,-1.49,-39.8,-16.05,-19.86,3.89,9.45,-4.16,3.15,-1.89,-1.71,8.64,14.43,-6.47,9.23,-12
1985,30.22,63.64,51.39,57.91,13.56,19.81,79.37,38.29,33.93,52.74,13.4,51.8,46.74,38.89,33.02,41.32,29.64,20.78,7.45,4.98,18.76,31.9,17.9,28.05,1.86,21.03,20.93,4.81,8.96,20.14,30.62,40.1,38.03,35,23.09,23.06,18.06,8.47,28.84,29.49,27.96,41.03,41.57,37.65,46.3,47.47,20.62,39.91,47.22
1986,14.01,31.41,28.64,22.06,60.89,1.76,11.49,17.71,22.46,16.5,-16.25,22.69,38.26,31.69,20.76,33.23,30.03,15.97,-5.86,4.45,7.33,3.08,18.43,3.62,-1.06,-6.76,3.9,8.79,-3.89,15.72,26.87,19.22,22.81,13.69,-8.87,9.14,3.22,8.87,26.69,35.71,11,13.89,19.02,13.24,17.2,7.35,1.67,12.31,34.71
1987,-11.8,2.85,10.57,26.78,20.21,6.01,12.21,12.82,4.06,-16,-15.01,5.79,6.88,15.36,3.26,0.53,5.82,-20.9,37.24,-1.6,18.22,2.42,8.76,-24.49,-23.54,0.53,66.22,23.67,-12.23,8.3,-7.17,10.07,-10.18,2.33,6.11,37.52,5.14,18.35,12.18,8.51,-11.54,-8.39,-5.86,-1,-14.89,-9.37,-9.61,-9.46,11.37
1988,23.04,46.59,14.34,20.42,31.93,16.07,18.56,14.45,7.24,33.3,22.55,8.21,11.88,9.69,17.97,50.64,18.29,38.93,18.41,32.73,21.35,9.94,33.18,32.57,-2.12,9.54,-16.08,19.22,12.81,21.13,17.81,23.14,-1.62,9.17,0.27,-0.44,2.37,-5.8,12.76,24.26,35,20.76,35.29,20.41,21.26,15.16,21.56,18.41,9.9
1989,18.03,36.22,-1.65,58.31,55.75,56.93,46.78,15.18,25.54,22.05,64.39,35.43,45.58,26.55,24.46,33.96,23.86,30.51,11.7,18.61,22.7,40.9,-2.73,16.25,-12.8,14.82,31.09,14.31,47.27,37.14,32.29,58.57,3.46,17.81,-13.77,21.43,11.44,7.13,22.43,24.14,24.32,15.73,26.84,35.23,19.84,43.53,-4.28,17.73,50.07
1990,-20.12,10.63,-3.07,19.62,37.43,-24.61,-12.67,-18.41,-0.99,-16.81,-0.46,16.71,17.76,-8.47,-7.51,-33.35,-13.13,-8.25,-13.6,-1.5,-15.37,-5.03,-22.33,-5.53,-28.71,2.03,-19,-12.16,-15.1,-1.11,-1.13,-15.31,-8.03,-2.38,3.68,3.8,-12.32,-8.81,-6.18,0.26,-16.12,-7.9,-2.88,-26.49,-24.83,-13.67,-42.61,-30.01,-11.37
1991,36.82,48.46,6.29,54.14,24.04,97.03,10.82,20.4,29.65,77.84,53.23,78.64,60.67,32.9,59.33,72.72,50.13,8.11,14.54,56.46,7.29,39.71,13.53,29.12,-1.05,17.66,-7.42,29.26,2.46,6.94,24.29,15.08,41.46,46.06,4.83,96.1,30.59,49.52,25.28,61.52,47.87,36.62,62.24,41.93,68.39,36.18,17.19,63.31,24.2
1992,-2.01,-0.1,-6.31,9.08,-9.79,18.64,46.89,17.49,12.3,10.07,-16.38,-9.88,-16.06,8.46,3.38,36.89,10.13,0.76,18.92,-1.04,6.72,15.23,41.82,4.25,17.13,17.18,-15.02,26.81,-16.84,4.77,8.45,16.64,11.66,12.7,-4.43,10.76,36,8.8,9.68,6.77,11.5,15.58,15.4,28.49,28.36,26.02,3.46,31.21,-1.38
1993,10.18,-13.24,30.58,2.88,-17.13,17.1,28.72,20.44,16.17,-14.88,24.54,-19.85,-8.17,10.55,24.59,4.04,21.2,14.24,16.69,7.49,33.77,22.29,50.49,28.53,2.7,30.92,49.41,3.37,9.51,13.64,12.72,20,17.94,11.34,12.13,10.01,45.01,16.9,7.22,-6.95,25.24,13.89,-1.28,23.1,10.16,9.55,25.12,23.69,-19.89
1994,-8.34,9.83,-14.37,7.79,2.64,-6.6,-6.76,-9.37,3.77,0.26,7.27,8.83,7.21,12.16,0.5,-18.09,-1.54,-18.58,8.47,0.77,-1.53,1.38,-13.7,4.39,-8.96,0.67,-21.01,-2.32,-20.48,2.64,-11.15,-5.22,-6.64,0.61,19.67,27.38,17.38,3.85,6.86,-0.46,-15.67,-5.71,-8.33,-8.18,-2.23,0.45,-8.51,-3.5,-7.84
1995,55.69,37.59,42.41,46.71,24.32,9.93,22.01,27.68,29.41,15.6,28.09,63.37,60.74,26.79,18.51,-0.08,25.48,44.13,11.46,26.77,29.42,39.29,16.88,64.26,17.65,47.49,11.61,16.87,3.69,28.48,31.68,40.44,34.79,37.32,45.77,48.88,37.55,46.97,26.52,8.56,41.38,26.7,12.01,33.49,59.43,44.21,19.88,44.83,13.7
1996,20.01,21.2,46.93,29.87,15.1,7.25,5.45,15.4,26.11,35.84,11.3,5.44,20.13,23.03,29.27,10.54,26.03,5.49,12.38,28.07,15.87,38.25,17.63,38.62,26.2,24.76,1.99,2.86,58.55,27.57,6.36,0.36,18.3,12.07,36.9,25.75,34.9,16.33,21.55,35.25,13.11,16.1,19.7,6.88,39.45,18.03,19.29,34.67,20.69
1997,46.14,37.03,86.97,28.32,24.59,21.1,26.19,41.97,33.21,-3.13,7.31,20.91,44.82,19.21,28.13,17.44,30,38.52,15.06,12.2,23.94,45.05,29.36,3.73,39.07,13.18,-31.87,-6.26,-13.84,20.27,27.69,41.93,31.71,22.41,25.19,27.89,13.48,17.78,10.39,8.63,30.4,13.73,41.35,12.6,50.55,40.44,26.54,69.41,13.75
1998,-7.35,0.65,7.9,9.1,22.51,-25.77,1.14,33.48,22.09,0.12,-26.07,31.73,46.17,-8.42,6.13,-11.22,-1.72,32.22,-7.39,-26.29,-13.09,33.24,35.25,2.03,7.67,-9.82,-23.82,9,14.62,-2.3,11.11,48.32,-8.11,16.89,80.48,76.37,51.94,-3.35,-1.59,-6.4,-4.91,5.38,56.02,19.32,9.13,14.35,-26.58,6.42,7.3
1999,-2.9,-17.56,-42.24,-9.73,-52.93,-13.17,20.96,17.87,9.99,-9.06,-17.67,-1.41,-2.07,12.87,1.72,-25.34,-5.62,-3.52,60.39,-8.26,42.96,48.59,-4.63,21.35,-9.47,-39.28,2.53,16.68,77.94,17.61,-13.84,32.61,-35.03,29.9,87.5,80.62,89.38,52.95,22.53,-0.19,-5.91,-2.16,19.4,-4.64,-4.9,-3.37,-18.63,37.99,-20.42
2000,-0.96,23.55,27.21,17.78,102.29,-12.43,-6.4,-0.59,-16.8,19.6,82.32,29.9,35.83,-2.97,-17.84,-7.34,-5.92,33.3,-7.9,-13.48,-12.58,-15.85,-21.98,23.85,45.06,44.38,-35.61,-7.49,103.93,22.95,52.29,-39.37,1.72,-19.32,-26.37,-50.58,-34.02,12.2,1.31,-32.48,11.55,37.2,-18.24,0.19,22.21,38.91,5.75,15.51,13.63
2001,20.18,4.43,5.39,-16.1,11.12,26.4,12.41,2.81,2.78,-1.07,0.58,4.84,-14.81,-8.5,20.37,33.4,6.84,13.37,-35.61,-5.21,2.12,-21.5,-1.44,-26.68,7.44,41.53,37.08,1.19,3.3,-6.9,-10.19,-17.39,33.88,-3.08,-48.09,-9.6,-28.44,-25.55,0.09,23.13,-1.82,-26.69,12.17,0.84,-0.64,-7.15,25.65,-15.18,-16.69
2002,-6.98,-3.13,12.21,-1.49,-7.2,-4.5,-3.33,3.9,4.47,0.26,-24.53,-13.33,-23.72,-5.32,-0.26,-10.09,-8.06,-10.44,-34.98,-28.06,-13.71,-6.49,-21.4,-12.84,0.43,22.7,59.65,-17.15,-13.59,-8.7,-22.06,-30.58,0.1,-25.04,-29.54,-35.99,-49.5,-35.57,-6.07,13.21,-6.22,-18.49,-22.03,-17.81,-8.6,-13.06,-3.2,-24.58,-36.04
2003,40.71,11.78,1.31,16.98,41.57,36.97,36.36,19.38,15.1,37.31,25.77,35.81,18.64,26.6,2.03,24.7,33.76,89.54,77.58,28.86,47.84,44.67,59.87,43.14,20.02,-8.09,72.27,84.77,58.57,26.65,25.6,14.98,44.68,28.96,59.08,30.97,79.45,53.82,33.86,14.46,23.36,28.5,29.19,38.93,34.13,22.88,41.32,49.11,32.51
2004,16.6,21.35,6.42,-10,20.67,16.04,20.77,2.03,14.02,23.61,9.8,14.62,-3.41,21.79,16.19,23.9,25.7,31.52,23.36,58.68,11.95,11.14,2.02,15.53,19.76,13.28,-10.48,8.25,64.19,32.16,24.79,9.26,9.9,10.93,3.69,13.87,-7.5,6.27,6.01,38.5,19.5,13.83,11.14,26.44,13.55,16,49.35,9.85,16.45
2005,-2.89,-4,6.3,3.01,25.61,-15.19,-4.61,-13.15,-0.29,3.81,13.15,2.44,4.47,-1.35,-2.12,-9.8,11.3,25.27,14.71,-15.9,13.5,4.64,-25.77,18.8,12.23,10.1,18.44,43.33,69.98,32.09,17.6,-6.72,-3.05,8.58,-0.4,-3.52,9.95,4.21,-1.17,1.23,9.69,8.93,5.09,8.36,0.74,20.06,7.33,20.49,-0.25
2006,23.76,19.12,12.84,14.98,22.92,20.77,32.96,21.28,16.12,23.02,5.5,3.48,9.43,16.11,34.03,4.55,9.58,-8.55,45.39,6.76,16.23,18.29,18.55,22.63,28.4,41.22,-9.98,35.13,-12.41,23.32,20.94,36.84,1.36,13.01,24.17,10.09,-3.42,17.76,9.01,19.65,10.74,13.88,8.39,23.73,16.96,7.53,2.6,34.07,15.9
2007,100.14,4.45,30.06,23.85,17.73,-21.24,3.77,-22.88,10.71,-11.12,2.43,10.54,2.26,29.55,-7.6,7.59,-4.32,-17.43,32.51,10.07,30.54,25.47,3.56,21.33,10.07,17.07,9.44,70.95,71.48,30.64,18.77,-1.66,8.01,1.2,20.88,17.61,12.51,19.93,3.96,29.8,0.25,1.71,-5.89,0.95,-24.72,-2.16,-19.26,-4.47,10.27
2008,-36.84,-18.01,-43.83,-16.54,-20.56,-31.45,-70.07,-60.01,-20.66,-34.06,-35.22,-33.18,-13.14,-47.23,-35.3,-49.61,-44.12,-37.43,-59.95,-39.78,-49.97,-41.83,-63.77,-44.2,-34.58,-20.5,-23.87,-55.15,-62.27,-31.4,-28.33,-34.49,-21.07,-36.31,-45.68,-39.73,-44.45,-41.01,-41.79,-29.4,-23.86,-35.76,-20.78,-18.34,-45.49,-50.27,-63.01,-60.02,-44.92
2009,17.73,18.98,61.07,21.11,26.05,27.51,59.39,55.46,12.31,52.59,35.66,31.09,18.54,62.58,33.28,41.15,30.5,7.96,34.87,40.26,49.51,28.09,92.49,35.95,38.7,-4.54,23.66,92.67,115.13,11.38,14.79,25.21,10.56,30,71.89,60.27,50.15,41.93,54.75,34.78,25.89,42.42,29.64,22.3,6.78,15.36,73.75,55.63,3.68
2010,-15.23,15.33,41.81,16.31,27.8,34.14,77.97,9.12,11.61,37.51,11.59,6.32,3.81,36.97,28.26,18.9,29.01,14.71,7.86,27.17,45.47,33.96,50.18,24.27,44.97,-3.53,39.58,48.63,34.53,20.19,8.26,22.31,-7.45,16.87,17.93,13.36,12.63,32.79,14.25,17.83,29.79,20.87,16.75,38.25,8.47,19.2,20.64,6.88,21.37
2011,-0.12,13.26,21.7,7.03,36.15,-7.05,-9.33,5.47,6.76,13.68,-11.56,-1.23,15.5,-3.34,9.29,-7.45,-4.57,-10.84,-27.49,5.43,-3.87,-12.46,-25.91,6.81,16.03,15.4,-6.99,-32.78,-44.43,6.56,20.88,6.16,1.58,-0.32,-0.17,0.31,-3.92,-6.82,-1.01,-5.77,0.34,7.46,8.28,22.12,-16.65,-0.15,-7.45,-27,-2
2012,34.79,8.91,13.74,11.98,10.21,25.96,16.63,22.14,10.25,12.91,33.97,14.62,20.69,21.57,25.71,50.04,33.07,46.11,3.57,16.51,13.62,17.65,23.96,12.05,22.38,20.08,-16.5,10.34,-26.5,4.38,3.72,29.21,-5.35,18.44,15.54,14.77,4.72,25.21,17.28,17.43,11.47,15.84,22.33,5.17,34.09,16.52,40.7,24.97,17
2013,26.33,34.22,17.56,28.12,17.33,46.53,76.69,41.07,28.24,40.23,29.98,33.66,43.95,32.26,47.52,73.11,36.25,28.16,29.48,58.94,28.91,40.25,46.11,55.02,72.54,69.57,-51.87,-0.74,-12.58,26.11,16.54,36.06,50.67,46.7,-1.34,36.85,45.69,42.13,44.59,36.95,45.87,43.8,35.23,30.38,40.67,45.6,24.58,55.25,33.8
2014,6.55,15.72,9.86,21.56,14.83,-9.77,-12.43,6.3,10.62,11.79,29.44,22.92,24.81,8.91,1.24,20.88,1.58,-9.37,0.49,-34.72,1.43,-3.09,8.25,3.51,17.69,27.1,-21.96,-17.33,-36.54,-11.16,23.4,6.27,11.95,10.4,26.53,8.61,29.09,11.87,15.82,12.76,31.68,12.32,14.31,10.52,10.61,14.11,5.82,13.11,10.45
2015,-13.9,11.12,10.48,14.2,22.86,-1.44,11.49,-7.31,-6.67,2.18,-6.37,7.94,6.46,-7.07,5.29,13.2,0.33,-1.39,-30.93,-45.81,-16.99,-13.17,-7.58,-0.32,-9.87,18.8,-10.84,-23.53,-80.81,-18.83,-13.95,-0.94,-16.92,4.33,-13.07,13.59,-3.19,6.24,-4.96,-5.3,-16.36,-4.39,8.03,11.37,1.24,8.4,-8.84,-5.01,2.72
2016,10.15,11.23,-1.24,5.73,16.23,14.11,17.65,3.71,7.17,-8.44,-2.64,15.47,-4.77,16.19,19.41,1.35,23.13,10.64,46.33,53.53,38.16,15.17,7.06,17.88,27.92,15.49,103.83,49.25,121.14,26.02,22.57,21.19,3.89,12.3,16.45,7.79,21.3,8.44,14.25,18.95,22.06,7.8,2.76,9.57,21.79,18.62,-4.96,21.59,15.28
2017,14.64,1.13,18.08,22.13,14.42,-9.38,41.57,14.33,14.75,24.19,6.95,32.39,21.52,34,18.59,35.48,29.29,47.26,22.35,38.76,41.72,18.72,22.74,46.06,19.12,29.45,3.98,22.6,9.48,0.94,9.99,4.34,22.22,31.85,27.8,35.26,39.18,37.89,25.21,17.89,22,9.5,25.68,26.86,21.59,26.21,30.21,28.42,-1.68
2018,-24.36,-17.23,4.1,-10.97,-30.35,-14.21,3.26,-22.39,-3.51,6.45,6.34,13.46,2.86,-15.49,-13.6,-51.57,-28.6,-30.61,-27.36,3.98,-20.65,-17.17,-20.51,-3.33,-15.38,-14,-11.16,-35.13,-12.83,-17.86,1.5,-3.36,-4.06,2.12,4.11,2.38,-6.25,3.44,-15.95,-17.83,-10.45,-11.07,6.96,2.69,-11.46,-1.08,-25.2,-15.55,-9.5
2019,22.53,21.98,20.85,26.18,22.11,67.18,28.57,17,34.62,39.99,29.17,28.71,17.84,7.79,20.42,16.68,46.45,43.89,10.78,3.5,39.15,33.81,25.53,21.04,16.84,49.49,30.94,43.27,-44.75,7.54,24.29,29.55,13.13,38.25,19.36,38.33,63.73,39.89,8.48,35.04,14.72,33.29,25.66,27.92,38.87,24.58,39.62,28.81,20.28
2020,25.56,7.2,9.75,14.18,-2.05,74.69,29.75,13.54,17.08,23.4,30.68,20.14,16.44,17.13,48.75,-0.92,18.97,25.53,4.37,41.2,29.01,40.08,208.55,-17.82,-7.94,-1.05,41.3,42.05,-33.42,-32.5,-3.89,12.06,-0.54,34.23,6.72,44.12,59.5,35.08,2.7,24.99,22.63,14.09,42.03,13.46,-5.1,6.16,6.91,21.4,6.81
2021,20.58,13.15,11.36,13.87,21.96,-27.13,4.2,28.83,19.15,15.02,2.52,16.95,13.9,25.16,41.68,28.29,40.08,45.93,69.82,26.23,31.48,19.48,46.02,12.89,20.38,5.87,1.36,34.63,125.83,60.57,20.18,-7.12,21.3,6.75,52.56,28.8,38.94,34.89,10.54,5.96,17.92,32.8,17.02,21.4,27.03,30.79,44.2,42.41,19.62
2022,21.11,7.18,9.83,3.37,9.34,-54.59,-39.19,-23.66,-15.28,-28.3,-25.84,-19.64,1.67,-14.49,-34.56,-34.71,-21.3,-15.58,7.09,-26.95,-11.99,-30.19,-57.2,8.38,8.57,32.8,-20.08,-10.22,100.02,65.43,2.88,-23.42,-11.98,-29.26,-24.95,-36.57,-29,-20.14,-20.95,-18.04,-23.07,-0.68,-30.16,-12.7,-16.02,7.93,-32.17,-14.7,-0.01
2023,-12.02,-7.22,1.16,-2.3,-2.34,6.49,37.26,30.11,0.11,10.57,4.23,6.5,4.05,5.62,28.71,2.32,53.29,69.14,33.52,13.67,28.27,20.28,71.79,15.66,20.16,2.49,-8.82,31.03,49.91,-1.92,-4.61,8.44,26.44,16.56,25.92,60.8,64.41,3.44,0.25,13.02,25.72,25.88,35.91,20.79,16.15,5.99,20.36,19.81,18.42
